digraph Tree {
node [shape=box, style="filled", color="black", fontname="helvetica"] ;
edge [fontname="helvetica"] ;
0 [label="gill-color <= 3.5\ngini = 0.5\nsamples = 6499\nvalue = [3349.0, 3150.0]\nclass = edible", fillcolor="#fdf8f3"] ;
1 [label="population <= 3.5\ngini = 0.274\nsamples = 2659\nvalue = [436, 2223]\nclass = poisonous", fillcolor="#60b0ea"] ;
0 -> 1 [labeldistance=2.5, labelangle=45, headlabel="True"] ;
2 [label="spore-print-color <= 1.5\ngini = 0.214\nsamples = 469\nvalue = [412, 57]\nclass = edible", fillcolor="#e99254"] ;
1 -> 2 ;
3 [label="gini = 0.0\nsamples = 39\nvalue = [0, 39]\nclass = poisonous", fillcolor="#399de5"] ;
2 -> 3 ;
4 [label="habitat <= 0.5\ngini = 0.08\nsamples = 430\nvalue = [412, 18]\nclass = edible", fillcolor="#e68742"] ;
2 -> 4 ;
5 [label="gini = 0.0\nsamples = 18\nvalue = [0, 18]\nclass = poisonous", fillcolor="#399de5"] ;
4 -> 5 ;
6 [label="gini = 0.0\nsamples = 412\nvalue = [412, 0]\nclass = edible", fillcolor="#e58139"] ;
4 -> 6 ;
7 [label="stalk-root <= 2.0\ngini = 0.022\nsamples = 2190\nvalue = [24, 2166]\nclass = poisonous", fillcolor="#3b9ee5"] ;
1 -> 7 ;
8 [label="stalk-surface-below-ring <= 0.5\ngini = 0.011\nsamples = 2178\nvalue = [12, 2166]\nclass = poisonous", fillcolor="#3a9ee5"] ;
7 -> 8 ;
9 [label="gill-size <= 0.5\ngini = 0.475\nsamples = 31\nvalue = [12, 19]\nclass = poisonous", fillcolor="#b6dbf5"] ;
8 -> 9 ;
10 [label="gini = 0.0\nsamples = 19\nvalue = [0, 19]\nclass = poisonous", fillcolor="#399de5"] ;
9 -> 10 ;
11 [label="gini = 0.0\nsamples = 12\nvalue = [12, 0]\nclass = edible", fillcolor="#e58139"] ;
9 -> 11 ;
12 [label="gini = 0.0\nsamples = 2147\nvalue = [0, 2147]\nclass = poisonous", fillcolor="#399de5"] ;
8 -> 12 ;
13 [label="gini = 0.0\nsamples = 12\nvalue = [12, 0]\nclass = edible", fillcolor="#e58139"] ;
7 -> 13 ;
14 [label="spore-print-color <= 1.5\ngini = 0.366\nsamples = 3840\nvalue = [2913, 927]\nclass = edible", fillcolor="#eda978"] ;
0 -> 14 [labeldistance=2.5, labelangle=-45, headlabel="False"] ;
15 [label="odor <= 3.5\ngini = 0.195\nsamples = 566\nvalue = [62, 504]\nclass = poisonous", fillcolor="#51a9e8"] ;
14 -> 15 ;
16 [label="gini = 0.0\nsamples = 504\nvalue = [0, 504]\nclass = poisonous", fillcolor="#399de5"] ;
15 -> 16 ;
17 [label="gini = 0.0\nsamples = 62\nvalue = [62, 0]\nclass = edible", fillcolor="#e58139"] ;
15 -> 17 ;
18 [label="gill-size <= 0.5\ngini = 0.225\nsamples = 3274\nvalue = [2851.0, 423.0]\nclass = edible", fillcolor="#e99456"] ;
14 -> 18 ;
19 [label="ring-number <= 0.5\ngini = 0.048\nsamples = 2746\nvalue = [2679, 67]\nclass = edible", fillcolor="#e6843e"] ;
18 -> 19 ;
20 [label="gini = 0.0\nsamples = 30\nvalue = [0, 30]\nclass = poisonous", fillcolor="#399de5"] ;
19 -> 20 ;
21 [label="ring-number <= 1.5\ngini = 0.027\nsamples = 2716\nvalue = [2679, 37]\nclass = edible", fillcolor="#e5833c"] ;
19 -> 21 ;
22 [label="gini = 0.0\nsamples = 2418\nvalue = [2418, 0]\nclass = edible", fillcolor="#e58139"] ;
21 -> 22 ;
23 [label="spore-print-color <= 6.0\ngini = 0.217\nsamples = 298\nvalue = [261, 37]\nclass = edible", fillcolor="#e99355"] ;
21 -> 23 ;
24 [label="gini = 0.0\nsamples = 37\nvalue = [0, 37]\nclass = poisonous", fillcolor="#399de5"] ;
23 -> 24 ;
25 [label="gini = 0.0\nsamples = 261\nvalue = [261, 0]\nclass = edible", fillcolor="#e58139"] ;
23 -> 25 ;
26 [label="stalk-shape <= 0.5\ngini = 0.439\nsamples = 528\nvalue = [172, 356]\nclass = poisonous", fillcolor="#99ccf2"] ;
18 -> 26 ;
27 [label="habitat <= 1.5\ngini = 0.326\nsamples = 448\nvalue = [92, 356]\nclass = poisonous", fillcolor="#6cb6ec"] ;
26 -> 27 ;
28 [label="gini = 0.0\nsamples = 244\nvalue = [0, 244]\nclass = poisonous", fillcolor="#399de5"] ;
27 -> 28 ;
29 [label="bruises <= 0.5\ngini = 0.495\nsamples = 204\nvalue = [92.0, 112.0]\nclass = poisonous", fillcolor="#dceefa"] ;
27 -> 29 ;
30 [label="population <= 2.5\ngini = 0.098\nsamples = 97\nvalue = [92, 5]\nclass = edible", fillcolor="#e68844"] ;
29 -> 30 ;
31 [label="gini = 0.0\nsamples = 5\nvalue = [0, 5]\nclass = poisonous", fillcolor="#399de5"] ;
30 -> 31 ;
32 [label="gini = 0.0\nsamples = 92\nvalue = [92, 0]\nclass = edible", fillcolor="#e58139"] ;
30 -> 32 ;
33 [label="gini = 0.0\nsamples = 107\nvalue = [0, 107]\nclass = poisonous", fillcolor="#399de5"] ;
29 -> 33 ;
34 [label="gini = 0.0\nsamples = 80\nvalue = [80, 0]\nclass = edible", fillcolor="#e58139"] ;
26 -> 34 ;
}